digraph Tree {
0 [label="grade_A <= 0.5000\ngini = 0.499973303045\nsamples = 37224", shape="box"] ;
1 [label="grade_B <= 0.5000\ngini = 0.497337460317\nsamples = 32094", shape="box"] ;
0 -> 1 ;
2 [label="gini = 0.4829\nsamples = 21728\nvalue = [ 12875.   8853.]", shape="box"] ;
1 -> 2 ;
3 [label="gini = 0.4869\nsamples = 10366\nvalue = [ 4343.  6023.]", shape="box"] ;
1 -> 3 ;
4 [label="total_rec_late_fee <= 14.8301\ngini = 0.370178554465\nsamples = 5130", shape="box"] ;
0 -> 4 ;
5 [label="gini = 0.3555\nsamples = 4987\nvalue = [ 1153.  3834.]", shape="box"] ;
4 -> 5 ;
6 [label="gini = 0.3902\nsamples = 143\nvalue = [ 105.   38.]", shape="box"] ;
4 -> 6 ;
}